digraph Tree {
node [shape=box] ;
0 [label="X[3] <= 0.8\nentropy = 1.572\nsamples = 120\nvalue = [41, 46, 33]"] ;
1 [label="entropy = 0.0\nsamples = 41\nvalue = [41, 0, 0]"] ;
0 -> 1 [labeldistance=2.5, labelangle=45, headlabel="True"] ;
2 [label="X[2] <= 4.75\nentropy = 0.98\nsamples = 79\nvalue = [0, 46, 33]"] ;
0 -> 2 [labeldistance=2.5, labelangle=-45, headlabel="False"] ;
3 [label="entropy = 0.0\nsamples = 41\nvalue = [0, 41, 0]"] ;
2 -> 3 ;
4 [label="X[2] <= 5.05\nentropy = 0.562\nsamples = 38\nvalue = [0, 5, 33]"] ;
2 -> 4 ;
5 [label="X[0] <= 6.5\nentropy = 0.994\nsamples = 11\nvalue = [0, 5, 6]"] ;
4 -> 5 ;
6 [label="X[1] <= 3.1\nentropy = 0.811\nsamples = 8\nvalue = [0, 2, 6]"] ;
5 -> 6 ;
7 [label="X[3] <= 1.65\nentropy = 0.592\nsamples = 7\nvalue = [0, 1, 6]"] ;
6 -> 7 ;
8 [label="X[0] <= 6.15\nentropy = 1.0\nsamples = 2\nvalue = [0, 1, 1]"] ;
7 -> 8 ;
9 [label="entropy = 0.0\nsamples = 1\nvalue = [0, 0, 1]"] ;
8 -> 9 ;
10 [label="entropy = 0.0\nsamples = 1\nvalue = [0, 1, 0]"] ;
8 -> 10 ;
11 [label="entropy = 0.0\nsamples = 5\nvalue = [0, 0, 5]"] ;
7 -> 11 ;
12 [label="entropy = 0.0\nsamples = 1\nvalue = [0, 1, 0]"] ;
6 -> 12 ;
13 [label="entropy = 0.0\nsamples = 3\nvalue = [0, 3, 0]"] ;
5 -> 13 ;
14 [label="entropy = 0.0\nsamples = 27\nvalue = [0, 0, 27]"] ;
4 -> 14 ;
}